/*!
 * The following copyright notice may not be removed under any circumstances.
 * 
 * Copyright:
 * Typeface © (your company). 2007. All Rights Reserved
 * 
 * Description:
 * This font was created using FontCreator 5.6 from High-Logic.com
 */

Cufon.registerFont({"w":1400,"face":{"font-family":"nevis","font-weight":700,"font-stretch":"normal","units-per-em":"2048","panose-1":"2 0 8 0 0 0 0 0 0 0","ascent":"1638","descent":"-410","x-height":"10","bbox":"-140 -1900 2035 430.07","underline-thickness":"150","underline-position":"-142","unicode-range":"U+0020-U+007C"},"glyphs":{" ":{"w":700},"\u00a0":{"w":700},"!":{"d":"261,-1466v102,0,140,33,131,132r-81,935r-132,0r-49,-935v2,-99,30,-132,131,-132xm248,-281v-86,0,-148,59,-148,141v0,83,62,140,150,140v88,0,150,-57,150,-140v0,-83,-62,-141,-152,-141","w":600},"\"":{"d":"211,-1587v74,0,120,41,110,109r-54,380r-110,0r-56,-402v4,-51,41,-87,110,-87xm524,-1587v74,0,119,41,109,109r-53,380r-111,0r-56,-402v4,-51,42,-87,111,-87","w":800},"#":{"d":"680,-876r-83,267r218,0r84,-267r-219,0xm625,-1499r237,0r-131,435r218,0r132,-435r236,0r-131,435r289,0r-51,183r-289,0r-81,267r309,0r-52,184r-310,0r-130,430r-236,0r129,-430r-216,0r-132,430r-236,0r130,-430r-273,0r52,-184r271,0r84,-267r-295,0r51,-183r295,0","w":1492},"$":{"d":"747,-618r0,328v65,-13,108,-38,130,-75v33,-57,33,-113,0,-170v-22,-37,-65,-65,-130,-83xm607,-1207v-53,13,-90,37,-110,72v-66,118,13,180,110,207r0,-279xm1227,-440v0,230,-251,421,-480,436r0,104r-140,0r0,-102v-239,-10,-394,-97,-520,-218r200,-200v64,77,171,123,320,138r0,-360v-112,-15,-215,-51,-310,-108v-100,-60,-150,-163,-150,-310v0,-133,57,-239,171,-320v94,-66,190,-105,289,-117r0,-103r140,0r0,102v232,12,332,78,460,198r-200,200v-63,-75,-149,-115,-260,-120r0,322v119,16,227,57,325,123v103,70,155,182,155,335","w":1413},"%":{"d":"352,0r850,-1500r244,0r-848,1500r-246,0xm435,-759v-208,0,-376,-168,-376,-376v0,-208,168,-376,376,-376v208,0,376,168,376,376v0,208,-168,376,-376,376xm242,-1136v0,110,79,199,190,199v111,0,190,-89,190,-199v0,-111,-80,-198,-191,-198v-110,0,-189,88,-189,198xm1363,8v-207,0,-373,-166,-373,-373v0,-207,166,-373,373,-373v207,0,373,166,373,373v0,207,-166,373,-373,373xm1172,-366v0,108,78,194,186,194v108,0,186,-86,186,-194v0,-107,-79,-193,-187,-193v-106,0,-185,87,-185,193","w":1900},"&":{"d":"1341,-667v-45,155,-62,216,-136,312r295,355r-341,0r-123,-150v-113,100,-226,152,-427,156v-295,6,-519,-161,-519,-428v0,-233,151,-356,335,-449v-79,-95,-141,-185,-141,-322v0,-200,179,-318,410,-318v230,0,394,130,394,334v0,59,-18,116,-53,169v-35,53,-107,114,-214,181r204,269v24,-43,48,-105,72,-187xm691,-1293v-79,0,-131,34,-133,101v-2,68,83,147,123,196v53,-42,153,-102,150,-177v-3,-77,-55,-120,-140,-120xm378,-432v-4,123,92,210,219,206v118,-3,180,-47,260,-112r-286,-353v-105,52,-189,132,-193,259","w":1642},"'":{"d":"211,-1587v74,0,120,41,110,109r-54,380r-110,0r-56,-402v4,-51,41,-87,110,-87","w":500},"(":{"d":"151,-205v-70,-249,-69,-545,1,-793v60,-213,195,-445,329,-585r279,0v-12,24,-60,72,-71,89v-149,232,-248,510,-248,893v0,381,97,657,248,889v11,18,59,65,71,92r-279,0v-133,-142,-270,-372,-330,-585","w":944},")":{"d":"764,-601v0,427,-177,751,-385,981r-279,0v12,-27,60,-74,71,-92v150,-231,248,-505,248,-889v0,-381,-98,-660,-248,-893v-11,-17,-59,-64,-71,-89r279,0v208,228,385,557,385,982","w":965},"*":{"d":"328,-1265r-229,-79r32,-98r228,83r0,-241r100,0r0,241r227,-86r38,96r-235,89r145,195r-75,65r-152,-200r-148,200r-80,-44","w":900},"+":{"d":"432,-597r-352,0r0,-240r352,0r0,-330r244,0r0,330r352,0r0,240r-352,0r0,330r-244,0r0,-330","w":1200},",":{"d":"101,-140v1,86,65,146,161,140v-20,59,-57,99,-111,120r50,90v135,-69,202,-183,200,-350v0,-83,-62,-141,-152,-141v-86,0,-148,59,-148,141","w":594},"-":{"d":"80,-401r0,-199r620,0r0,199r-620,0","w":900},"\u00ad":{"d":"80,-401r0,-199r620,0r0,199r-620,0","w":900},".":{"d":"239,-281v-86,0,-148,59,-148,141v0,83,62,140,150,140v88,0,150,-57,150,-140v0,-83,-62,-141,-152,-141","w":581},"\/":{"d":"181,60r-195,0r548,-1504r195,0","w":823},"0":{"d":"242,-216v-197,-271,-197,-799,0,-1069v103,-141,233,-215,400,-215v167,0,297,74,400,215v196,270,196,800,0,1070v-103,141,-233,215,-400,215v-167,0,-297,-74,-400,-216xm467,-415v100,177,250,178,350,0v96,-171,96,-499,0,-670v-100,-177,-250,-178,-350,0v-96,171,-96,499,0,670","w":1382},"1":{"d":"47,-1100r400,-401r299,0r0,1501r-299,0r0,-1100r-200,200","w":947},"2":{"d":"80,-1300v151,-141,215,-200,519,-200v288,0,501,148,501,440v0,173,-67,332,-200,476v-133,144,-242,239,-329,284r540,0r0,300r-1011,0r0,-300v67,0,193,-83,380,-250v187,-167,295,-285,325,-355v30,-70,28,-140,-5,-210v-33,-70,-113,-105,-240,-105v-120,0,-213,40,-280,120","w":1300},"3":{"d":"685,-1500v269,0,511,190,511,440v0,155,-56,253,-164,300v134,42,204,141,204,320v0,249,-287,440,-551,440v-277,0,-451,-86,-589,-220r200,-200v67,80,179,140,340,140v133,0,217,-28,250,-85v33,-57,33,-113,0,-170v-33,-57,-150,-88,-349,-95r0,-270v199,13,316,-8,349,-65v33,-57,33,-113,0,-170v-33,-57,-117,-85,-250,-85v-127,0,-223,40,-290,120r-200,-200v142,-136,258,-200,539,-200"},"4":{"d":"81,-639r680,-862r299,0r0,872r202,0r0,299r-202,0r0,330r-299,0r0,-330r-681,0r0,-299r10,0xm761,-629r0,-478r-365,478r365,0","w":1411},"5":{"d":"1164,-470v0,258,-249,470,-521,470v-277,0,-451,-86,-589,-220r200,-200v67,80,173,130,320,130v180,0,295,-65,295,-198v0,-85,-35,-147,-92,-186v-53,-66,-456,-57,-642,-56r0,-770r920,0r0,280r-620,0r0,210v246,-9,456,21,574,135v105,101,155,238,155,405","w":1302},"6":{"d":"1198,-500v0,295,-218,510,-540,500v-413,-13,-560,-300,-560,-729v0,-241,52,-428,155,-563v103,-135,242,-207,415,-207v173,0,313,54,420,149r-150,200v-133,-73,-364,-94,-464,25v-49,59,-80,142,-86,255v101,-87,201,-130,300,-130v334,0,510,183,510,500xm428,-499v0,139,87,218,240,218v153,0,240,-72,240,-199v0,-167,-90,-250,-250,-250v-140,0,-230,83,-230,231","w":1388},"7":{"d":"249,0r1,-100r469,-1120r-642,0r-1,-280r1024,0r0,110r-559,1390r-292,0","w":1262},"8":{"d":"590,-621v-88,14,-144,43,-169,86v-33,57,-33,113,0,170v30,52,86,84,169,84v83,0,139,-32,170,-84v33,-57,33,-113,0,-170v-25,-43,-82,-72,-170,-86xm590,-896v88,0,145,-26,170,-69v33,-57,33,-113,0,-170v-31,-52,-87,-84,-170,-84v-83,0,-139,32,-169,84v-33,57,-33,113,0,170v25,43,81,69,169,69xm591,-1500v283,0,479,158,479,440v0,155,-56,253,-164,300v134,42,204,141,204,320v0,308,-220,440,-521,440v-299,0,-519,-132,-519,-440v0,-178,70,-279,204,-320v-108,-47,-164,-145,-164,-300v0,-283,196,-440,481,-440","w":1292},"9":{"d":"1142,-835v0,319,-64,541,-180,665v-116,124,-262,182,-434,164v-172,-18,-306,-84,-403,-190r169,-184v118,81,343,134,464,21v56,-52,94,-133,111,-245v-109,76,-213,109,-311,100v-319,-28,-488,-215,-458,-548v25,-280,255,-495,587,-444v321,50,455,277,455,661xm842,-1000v0,-139,-87,-218,-240,-218v-153,0,-240,72,-240,199v0,167,90,250,250,250v140,0,230,-83,230,-231","w":1328},":":{"d":"244,-281v-86,0,-148,59,-148,141v0,83,62,140,150,140v88,0,150,-57,150,-140v0,-83,-62,-141,-152,-141xm244,-997v-86,0,-148,59,-148,141v0,83,62,140,150,140v88,0,150,-57,150,-140v0,-83,-62,-141,-152,-141","w":586},";":{"d":"97,-140v1,86,65,146,161,140v-20,59,-57,99,-111,120r50,90v135,-69,202,-183,200,-350v0,-83,-62,-141,-152,-141v-86,0,-148,59,-148,141xm250,-1001v-86,0,-148,59,-148,141v0,83,62,140,150,140v88,0,150,-57,150,-140v0,-83,-62,-141,-152,-141","w":602},"\u037e":{"d":"97,-140v1,86,65,146,161,140v-20,59,-57,99,-111,120r50,90v135,-69,202,-183,200,-350v0,-83,-62,-141,-152,-141v-86,0,-148,59,-148,141xm250,-1001v-86,0,-148,59,-148,141v0,83,62,140,150,140v88,0,150,-57,150,-140v0,-83,-62,-141,-152,-141","w":602},"<":{"d":"996,-1070r-580,320r580,320r0,230r-948,-521r0,-65r948,-514r0,230","w":1148},"=":{"d":"100,-599r900,0r0,199r-900,0r0,-199xm100,-1000r900,0r0,199r-900,0r0,-199","w":1200},">":{"d":"100,-1300r948,514r0,65r-948,521r0,-230r580,-320r-580,-320r0,-230","w":1154},"?":{"d":"50,-1300v142,-136,258,-200,539,-200v120,0,234,40,341,120v107,80,160,187,160,320v0,200,-102,343,-285,390v-97,25,-148,117,-154,270r-280,0v3,-256,76,-433,293,-476v91,-18,139,-83,142,-202v-23,-91,-115,-142,-276,-142v-120,0,-213,40,-280,120xm519,-281v-86,0,-148,59,-148,141v0,83,62,140,150,140v88,0,150,-57,150,-140v0,-83,-62,-141,-152,-141","w":1249},"@":{"d":"1001,-24v-243,3,-400,-100,-400,-320v0,-93,32,-177,95,-250v105,-121,351,-149,525,-50v7,-102,-42,-150,-160,-150v-120,0,-213,20,-280,60r-130,-150v127,-87,280,-140,460,-140v246,0,390,143,390,400r0,392v74,74,133,65,177,-28v44,-93,59,-187,57,-281v-5,-204,-57,-373,-167,-507v-110,-134,-285,-201,-525,-202v-229,0,-401,68,-517,205v-116,137,-181,304,-181,502v0,273,90,470,255,591v165,121,445,172,842,152r0,200v-520,20,-873,-58,-1060,-232v-187,-174,-290,-412,-290,-714v0,-223,79,-429,236,-619v157,-190,395,-285,715,-285v319,0,555,86,708,260v153,174,242,391,242,652v0,367,-141,589,-350,618v-180,25,-323,-54,-422,-184v-81,53,-155,80,-220,80xm1221,-324r0,-113v-27,-51,-90,-77,-190,-77v-121,0,-190,60,-190,140v0,80,70,129,190,129v100,0,163,-26,190,-79","w":2189},"A":{"d":"44,0r600,-1500r300,0r599,1499r-319,1r-90,-230r-680,0r-90,230r-320,0xm802,-1100r-228,570r450,0","w":1644,"k":{"C":40}},"B":{"d":"401,-1201r423,0v119,4,183,43,183,116v0,123,-65,187,-186,187r-420,0r0,-303xm401,-601r493,0v139,4,213,54,213,150v0,143,-75,217,-216,217r-490,0r0,-367xm1296,-1058v0,-280,-147,-441,-400,-441r-796,0r0,1499r844,1v289,-17,453,-166,453,-449v0,-141,-78,-255,-209,-343v67,-45,108,-134,108,-267","w":1573},"C":{"d":"798,0v-416,0,-749,-333,-749,-753v0,-412,335,-747,749,-747v214,0,398,67,551,200r-200,219v-102,-80,-219,-120,-351,-120v-262,0,-449,187,-449,446v0,272,182,455,451,455v135,0,251,-40,349,-119r200,219v-153,133,-336,200,-551,200","w":1549},"D":{"d":"423,-299r0,-901r278,0v266,0,400,150,400,450v0,300,-134,451,-400,451r-278,0xm701,0v467,0,700,-250,700,-750v0,-501,-233,-751,-700,-751r-578,0r0,1501r578,0","w":1600},"E":{"d":"119,0r0,-1499r1102,-1r0,280r-802,0r0,320r601,0r0,279r-601,0r0,341r800,0r0,280r-1100,0"},"F":{"d":"122,0r0,-1500r1055,0r0,280r-755,0r0,320r557,0r0,279r-557,0r0,621r-300,0","w":1272},"G":{"d":"791,0v-416,0,-749,-333,-749,-753v0,-412,335,-747,749,-747v214,0,398,67,551,200r-200,219v-102,-80,-219,-120,-351,-120v-262,0,-449,187,-449,446v0,272,182,455,451,455v108,0,191,-21,249,-64r0,-257r-200,1r0,-280r500,0r0,700v-153,133,-336,200,-551,200","w":1521},"H":{"d":"123,0r0,-1500r300,0r0,600r699,0r0,-601r300,0r0,1500r-300,1r0,-620r-699,0r0,620r-300,0","w":1623},"I":{"d":"123,-1501r299,0r0,1501r-299,0r0,-1501","w":600},"J":{"d":"649,-399v4,235,-164,403,-398,399r-202,0r0,-280r99,0v134,-6,201,-79,201,-219r0,-1001r301,0","w":849},"K":{"d":"126,-1500r300,0r0,600r500,-600r337,0r-587,700r710,800r-390,0r-570,-648r0,648r-300,0r0,-1500","w":1444},"L":{"d":"126,-1500r0,1500r1100,0r0,-280r-800,0r0,-1220r-300,0","w":1350},"M":{"d":"123,0r0,-1500r100,0r650,740r651,-740r100,0r0,1500r-300,0r-1,-870r-450,500r-450,-500r0,870r-300,0","w":1800},"N":{"d":"123,0r0,-1500r100,0r940,940r0,-940r300,0r0,1500r-110,0r-930,-930r0,930r-300,0","w":1651},"O":{"d":"797,0v-417,0,-750,-334,-750,-750v0,-417,333,-750,750,-750v417,0,750,333,750,750v0,417,-333,750,-750,750xm347,-750v0,261,188,470,451,470v261,0,449,-210,449,-470v0,-261,-188,-470,-451,-470v-261,0,-449,210,-449,470","w":1647},"P":{"d":"123,0r0,-1500r654,0v350,0,525,144,525,432v0,299,-175,448,-524,448r-355,0r0,620r-300,0xm423,-900r420,0v121,-2,186,-57,186,-165v0,-99,-64,-154,-183,-154r-423,0r0,319"},"Q":{"d":"352,-750v0,313,273,550,604,447r-113,-147r238,-183r106,138v43,-74,65,-159,65,-255v0,-261,-188,-470,-451,-470v-261,0,-449,210,-449,470xm802,-1500v417,0,750,333,750,750v0,195,-60,360,-179,496r128,166r-238,183r-128,-166v-99,47,-210,71,-333,71v-417,0,-750,-334,-750,-750v0,-417,333,-750,750,-750","w":1652},"R":{"d":"423,-900r420,0v121,-2,186,-57,186,-165v0,-99,-64,-154,-183,-154r-423,0r0,319xm1026,-654r374,654r-344,0r-359,-620r-274,0r0,620r-300,0r0,-1500r654,0v350,0,525,144,525,432v0,217,-92,355,-276,414","w":1433},"S":{"d":"1170,-440v0,249,-287,440,-551,440v-277,0,-451,-86,-589,-220r200,-200v67,80,179,140,340,140v133,0,217,-28,250,-85v33,-57,33,-113,0,-170v-33,-57,-117,-91,-250,-105v-120,-13,-230,-50,-330,-110v-100,-60,-150,-163,-150,-310v0,-133,56,-240,170,-320v114,-80,231,-120,351,-120v281,0,396,64,539,200r-200,200v-67,-80,-160,-120,-280,-120v-120,0,-197,28,-230,85v-33,57,-33,105,0,145v33,40,109,74,230,90v126,17,242,55,345,125v103,70,155,182,155,335","w":1315},"T":{"d":"47,-1500r0,280r500,0r0,1220r300,0r0,-1220r500,0r0,-280r-1300,0","w":1447},"U":{"d":"750,-300v-205,0,-350,-111,-350,-330r0,-870r-300,0r0,950v-3,319,308,550,650,550v343,0,650,-230,650,-550r0,-950r-300,0r0,870v6,219,-145,330,-350,330","w":1601},"V":{"d":"31,-1500r601,1500r300,0r599,-1500r-320,0r-434,1099r-426,-1099r-320,0","w":1657},"W":{"d":"1335,0r300,0r400,-1500r-320,0r-260,1020r-260,-1020r-310,0r-270,1020r-261,-1020r-320,0r401,1500r300,0r300,-1100","w":2134},"X":{"d":"617,-781r-525,-719r352,0r350,477r350,-477r352,0r-525,719r573,781r-356,0r-394,-539r-394,539r-356,0","w":1616},"Y":{"d":"35,-1500r352,0r348,490r356,-490r344,0r-550,750r0,750r-300,0r0,-750","w":1534},"Z":{"d":"1299,0r-1201,0r1,-100r699,-1120r-699,0r-1,-280r1201,0r0,110r-702,1110r702,0r0,280","w":1475},"[":{"d":"99,400r0,-2299r501,-1r1,270r-222,0r0,1760r221,0r0,270r-501,0","w":758},"\\":{"d":"36,-1444r195,0r548,1504r-195,0","w":823},"]":{"d":"100,400r0,-270r221,0r0,-1760r-222,0r1,-270r501,1r0,2299r-501,0","w":800},"^":{"d":"100,-1252r353,-500r349,500r-101,0r-250,-251r-249,251r-102,0","w":1000},"_":{"d":"100,100r1024,0r0,100r-1024,0r0,-100","w":1300},"a":{"d":"449,0v-243,3,-400,-100,-400,-320v0,-93,32,-177,95,-250v105,-121,351,-149,525,-50v7,-102,-42,-150,-160,-150v-120,0,-213,20,-280,60r-110,-170v127,-80,273,-120,440,-120v246,1,390,143,390,400r0,600r-280,0r0,-80v-81,53,-155,80,-220,80xm669,-300r0,-113v-27,-51,-90,-77,-190,-77v-121,0,-190,60,-190,140v0,80,70,129,190,129v100,0,163,-26,190,-79","w":1099},"b":{"d":"1091,-500v0,271,-210,500,-500,500v-72,0,-145,-27,-220,-80r0,80r-280,0r0,-1499r280,-1r0,581v47,-47,120,-76,220,-81v290,-13,500,229,500,500xm581,-230v173,0,270,-103,270,-290v0,-155,-110,-236,-270,-249v-127,19,-210,84,-210,197r0,162v13,100,82,180,210,180","w":1191},"c":{"d":"549,0v-258,0,-509,-188,-500,-450r0,-100v-9,-263,242,-450,501,-450v160,0,293,57,399,170r-200,150v-60,-60,-127,-90,-200,-90v-133,0,-250,132,-250,270v0,142,106,270,250,270v73,0,140,-30,200,-90r200,150v-107,113,-240,170,-400,170","w":1049},"d":{"d":"49,-500v0,-271,210,-514,500,-500v100,5,173,34,220,81r0,-581r280,1r0,1499r-280,0r0,-80v-75,53,-148,80,-220,80v-290,0,-500,-229,-500,-500xm769,-410r0,-162v-13,-112,-83,-178,-210,-197v-160,13,-270,94,-270,249v0,187,97,290,270,290v128,0,210,-79,210,-180","w":1195},"e":{"d":"547,0v-288,0,-500,-212,-500,-500v0,-288,212,-500,500,-500v290,0,484,212,480,500r0,100r-690,0v10,102,101,170,210,170v93,0,177,-27,250,-80r160,160v-73,100,-210,150,-410,150xm747,-600v6,-160,-223,-218,-340,-125v-39,31,-60,72,-60,125r400,0","w":1147},"f":{"d":"548,-1265v-81,0,-122,50,-120,145r0,94r150,0r0,226r-150,0r0,800r-281,0r0,-800r-150,0r0,-226r150,0r0,-134v-1,-205,155,-340,370,-340v120,0,213,33,280,100r-149,166v-19,-21,-52,-31,-100,-31","w":772},"g":{"d":"44,-500v0,-293,180,-509,480,-500v113,4,193,37,240,91r0,-91r280,30r0,890v6,269,-187,494,-440,500r-60,6v-193,-4,-343,-59,-450,-166r130,-150v73,53,162,86,267,90v203,8,280,-104,273,-290v-75,60,-161,90,-260,90v-307,0,-460,-197,-460,-500xm764,-410r0,-162v-13,-112,-82,-197,-210,-197v-167,0,-270,88,-270,249v0,187,97,290,270,290v128,0,210,-79,210,-180","w":1144},"h":{"d":"730,-550v0,-135,-68,-213,-201,-213v-58,0,-108,33,-149,87r0,676r-280,0r0,-1500r280,0r0,590v67,-60,147,-90,240,-90v235,0,390,168,390,380r0,620r-280,0r0,-550","w":1100},"i":{"d":"100,0r0,-1001r280,0r0,1001r-280,0xm238,-1381v-86,0,-148,59,-148,141v0,83,62,140,150,140v88,0,150,-57,150,-140v0,-83,-62,-141,-152,-141","w":524},"j":{"d":"440,31v2,235,-142,403,-378,399r-202,0r0,-230r99,0v134,-6,201,-79,201,-219r0,-981r281,0xm297,-1381v-86,0,-148,59,-148,141v0,83,62,140,150,140v88,0,150,-57,150,-140v0,-83,-62,-141,-152,-141","w":595},"k":{"d":"126,-1500r300,0r0,849r287,-349r337,0r-374,449r474,551r-390,0r-334,-399r0,399r-300,0r0,-1500","w":1200},"l":{"d":"100,0r0,-1500r280,0r0,1500r-280,0","w":573},"m":{"d":"726,-550v-1,-135,-57,-213,-191,-213v-61,0,-114,45,-159,123r0,640r-280,0r0,-971r280,-30r0,89v130,-132,424,-110,530,27v73,-77,183,-115,330,-115v235,0,390,168,390,380r0,620r-280,0r0,-550v-1,-135,-57,-213,-191,-213v-55,0,-103,41,-144,110v-13,207,-1,437,-5,653r-280,0r0,-550","w":1773},"n":{"d":"730,-550v0,-135,-68,-213,-201,-213v-58,0,-108,46,-149,127r0,636r-280,0r0,-971r280,-30r0,91v67,-60,147,-90,240,-90v235,0,390,168,390,380r0,620r-280,0r0,-550","w":1145},"o":{"d":"552,10v-284,0,-510,-227,-510,-510v0,-284,226,-510,510,-510v284,0,510,226,510,510v0,284,-226,510,-510,510xm295,-499v0,149,106,267,256,267v150,0,256,-118,256,-267v0,-149,-106,-268,-257,-268v-149,0,-255,120,-255,268","w":1152},"p":{"d":"1096,-501v0,271,-210,514,-500,500v-100,-5,-173,-34,-220,-81r0,503r-280,-1r0,-1391r280,-30r0,80v75,-53,148,-80,220,-80v290,0,500,229,500,500xm376,-591r0,162v13,112,83,178,210,197v160,-13,270,-94,270,-249v0,-187,-97,-290,-270,-290v-128,0,-210,79,-210,180","w":1196},"q":{"d":"44,-501v0,-271,210,-500,500,-500v72,0,145,27,220,80r0,-80r280,30r0,1391r-280,1r0,-503v-47,47,-120,76,-220,81v-290,13,-500,-229,-500,-500xm554,-771v-173,0,-270,103,-270,290v0,155,110,236,270,249v127,-19,210,-84,210,-197r0,-162v-13,-100,-82,-180,-210,-180","w":1172},"r":{"d":"358,-890v91,-93,204,-127,354,-102r-44,276v-33,-29,-79,-47,-140,-47v-68,0,-125,54,-170,148r0,615r-280,0r0,-971r280,-30r0,111","w":796},"s":{"d":"824,-288v0,191,-184,298,-373,298v-188,0,-305,-58,-399,-149r155,-175v45,54,115,94,211,94v77,0,126,-13,148,-38v22,-25,26,-49,10,-74v-16,-25,-68,-42,-158,-51v-81,-9,-156,-34,-224,-75v-68,-41,-101,-117,-101,-230v0,-103,38,-182,115,-236v77,-54,157,-82,238,-82v190,0,268,44,365,135r-156,176v-45,-54,-102,-81,-170,-81v-67,0,-112,13,-135,38v-23,25,-23,48,0,68v23,20,67,41,135,50v200,27,339,99,339,332","w":928},"t":{"d":"463,-380v-2,126,74,169,195,132r59,201v-48,31,-103,47,-165,47v-215,0,-371,-135,-370,-340r0,-433r-150,0r0,-226r150,0r0,-271r281,-30r0,301r150,0r0,226r-150,0r0,393","w":787},"u":{"d":"353,-451v0,135,68,213,201,213v58,0,108,-43,149,-117r0,-646r280,0r0,1001r-280,0r0,-91v-67,60,-147,90,-240,90v-235,0,-390,-168,-390,-380r0,-620r280,0r0,550","w":1125},"v":{"d":"17,-1000r402,1000r240,0r401,-1000r-284,0r-240,625r-235,-625r-284,0","w":1142},"w":{"d":"843,0r250,0r267,-1001r-263,0r-154,601r-143,-601r-207,0r-150,591r-155,-591r-263,0r268,1001r250,0r150,-501","w":1460},"x":{"d":"369,-521r-324,-477r284,0r183,268r183,-268r284,0r-324,477r356,521r-287,0r-212,-312r-212,312r-287,0","w":1096},"y":{"d":"365,-450v0,135,68,213,201,213v59,0,110,-40,154,-109r0,-654r280,0r0,920v9,265,-198,483,-440,500v-182,13,-307,-44,-440,-160r130,-150v80,60,155,97,227,100v189,7,253,-108,243,-301v-71,61,-152,91,-245,91v-235,0,-390,-168,-390,-380r0,-620r280,0r0,550","w":1128},"z":{"d":"884,0r-799,0r0,-67r416,-695r-416,0r0,-236r799,0r0,73r-417,689r417,0r0,236","w":1013},"|":{"d":"195,400r0,-2299r280,0r0,2299r-280,0","w":774}}});
